-1.6276323189708486	0.9502892131199087	0.5609056268140402	0.3702497297258657	-1.6498487605412309	1.4776188942421216	-0.050741718621792255	-0.11202425569109974	-1.0210734335304166	-1.3364846543701343	1.4740074394154237	0.11289595263643917	-0.14424750377603968	0.1712958465055428	-0.2530824189789728	-0.2978963993686125	-0.33564514508771126	0.34253775223114774	-0.8006011888063932	-1.612868137509746	-1.0304650519047198	-0.3192599538462745	-0.13375460835932867	2.192553636255497	1.343010064046644	0.8683790712720953	-0.7337471930605295	0.8317216652933417
-1.4842331121819656	0.9105955292645876	0.0962507426225941	0.02806157674625181	-0.47159613879103884	0.6929638078440195	-1.985722444596672	-1.2476271071373983	1.7549568609141772	-1.343503292065533	0.0633569189075876	1.9749268004521714	1.5909743126062876	-0.2798394619931866	-1.8678164998693203	0.6521326018478039	-2.1679945139765926	-0.11674222448960225	-0.3424535517169665	1.1487767746671889	0.6628777161572936	1.0828940333432593	-0.08212022104167704	-0.22615242660973675	1.8183472717302531	0.7473133702364916	0.17142137874372457	-0.3960328213797316
-2.1103521719233056	0.7246367818183478	-1.2214293874564963	-1.304675263912251	-0.439916109629428	-1.0073850539319997	1.3266215265519823	0.6402864669819197	0.4736443500041652	0.8511404608759551	-0.25363156774426454	-0.29724384161748696	-1.0006943791608753	0.23791288219950782	1.064779778149072	-1.7287722636311817	-1.2101004912524362	0.5345793873609774	0.6389437569873729	0.43497855336718344	1.678672300846206	1.6249890650423653	0.3620015751441593	1.1313934146220141	-1.808491042797559	0.7397802379972823	-0.1936993898702234	-1.277142629605996